digraph Tree {
node [shape=box] ;
0 [label="OTU_193 <= 0.5\ngini = 0.382\nsamples = 748\nvalue = [556, 192]\nclass = Not Preterm"] ;
1 [label="OTU_928 <= 1.5\ngini = 0.306\nsamples = 631\nvalue = [512, 119]\nclass = Not Preterm"] ;
0 -> 1 [labeldistance=2.5, labelangle=45, headlabel="True"] ;
2 [label="OTU_474 <= 0.5\ngini = 0.249\nsamples = 569\nvalue = [486, 83]\nclass = Not Preterm"] ;
1 -> 2 ;
3 [label="OTU_121 <= 54.0\ngini = 0.236\nsamples = 563\nvalue = [486, 77]\nclass = Not Preterm"] ;
2 -> 3 ;
4 [label="gini = 0.222\nsamples = 557\nvalue = [486, 71]\nclass = Not Preterm"] ;
3 -> 4 ;
5 [label="gini = 0.0\nsamples = 6\nvalue = [0, 6]\nclass = Preterm"] ;
3 -> 5 ;
6 [label="gini = 0.0\nsamples = 6\nvalue = [0, 6]\nclass = Preterm"] ;
2 -> 6 ;
7 [label="OTU_30 <= 6.0\ngini = 0.487\nsamples = 62\nvalue = [26, 36]\nclass = Preterm"] ;
1 -> 7 ;
8 [label="OTU_96 <= 28.0\ngini = 0.245\nsamples = 21\nvalue = [18, 3]\nclass = Not Preterm"] ;
7 -> 8 ;
9 [label="gini = 0.0\nsamples = 18\nvalue = [18, 0]\nclass = Not Preterm"] ;
8 -> 9 ;
10 [label="gini = 0.0\nsamples = 3\nvalue = [0, 3]\nclass = Preterm"] ;
8 -> 10 ;
11 [label="OTU_71 <= 2.0\ngini = 0.314\nsamples = 41\nvalue = [8, 33]\nclass = Preterm"] ;
7 -> 11 ;
12 [label="gini = 0.463\nsamples = 11\nvalue = [7, 4]\nclass = Not Preterm"] ;
11 -> 12 ;
13 [label="gini = 0.064\nsamples = 30\nvalue = [1, 29]\nclass = Preterm"] ;
11 -> 13 ;
14 [label="OTU_1645 <= 3.5\ngini = 0.469\nsamples = 117\nvalue = [44, 73]\nclass = Preterm"] ;
0 -> 14 [labeldistance=2.5, labelangle=-45, headlabel="False"] ;
15 [label="OTU_50 <= 2.5\ngini = 0.465\nsamples = 57\nvalue = [36, 21]\nclass = Not Preterm"] ;
14 -> 15 ;
16 [label="OTU_31 <= 0.5\ngini = 0.452\nsamples = 29\nvalue = [10, 19]\nclass = Preterm"] ;
15 -> 16 ;
17 [label="gini = 0.0\nsamples = 10\nvalue = [0, 10]\nclass = Preterm"] ;
16 -> 17 ;
18 [label="gini = 0.499\nsamples = 19\nvalue = [10, 9]\nclass = Not Preterm"] ;
16 -> 18 ;
19 [label="OTU_186 <= 27.0\ngini = 0.133\nsamples = 28\nvalue = [26, 2]\nclass = Not Preterm"] ;
15 -> 19 ;
20 [label="gini = 0.071\nsamples = 27\nvalue = [26, 1]\nclass = Not Preterm"] ;
19 -> 20 ;
21 [label="gini = 0.0\nsamples = 1\nvalue = [0, 1]\nclass = Preterm"] ;
19 -> 21 ;
22 [label="OTU_63 <= 14.0\ngini = 0.231\nsamples = 60\nvalue = [8, 52]\nclass = Preterm"] ;
14 -> 22 ;
23 [label="OTU_17 <= 499.0\ngini = 0.074\nsamples = 52\nvalue = [2, 50]\nclass = Preterm"] ;
22 -> 23 ;
24 [label="gini = 0.0\nsamples = 50\nvalue = [0, 50]\nclass = Preterm"] ;
23 -> 24 ;
25 [label="gini = 0.0\nsamples = 2\nvalue = [2, 0]\nclass = Not Preterm"] ;
23 -> 25 ;
26 [label="OTU_788 <= 7.5\ngini = 0.375\nsamples = 8\nvalue = [6, 2]\nclass = Not Preterm"] ;
22 -> 26 ;
27 [label="gini = 0.0\nsamples = 6\nvalue = [6, 0]\nclass = Not Preterm"] ;
26 -> 27 ;
28 [label="gini = 0.0\nsamples = 2\nvalue = [0, 2]\nclass = Preterm"] ;
26 -> 28 ;
}